~o
<STREAMINFO> 1 54
<VECSIZE> 54<NULLD><USER><DIAGC>
~h "S1_WN1"
<BEGINHMM>
<NUMSTATES> 25
<STATE> 2
<MEAN> 54
 4.913070e-01 4.116887e-01 3.491063e-01 2.078343e-01 2.964329e-01 1.878757e-01 2.233225e-01 1.212219e-01 1.405429e-01 1.053809e-01 7.321788e-02 8.741323e-02 5.203278e-02 4.743420e-02 1.867921e-02 2.426569e-02 6.183292e-03 -3.983025e-03 -1.475316e-03 -3.454235e-04 1.749857e-04 2.260749e-04 6.492922e-04 1.070246e-03 7.766939e-04 7.710096e-04 7.383419e-04 9.058278e-04 4.493159e-04 6.141672e-04 1.333871e-04 3.395563e-04 5.966672e-05 3.549699e-05 -1.446781e-04 1.157210e-04 6.087662e-05 -2.365590e-05 -8.021910e-06 -1.864913e-05 -1.155944e-05 -2.362158e-05 -2.884549e-05 -1.510622e-05 -7.510891e-06 -1.942369e-05 -3.309553e-06 -1.146404e-05 -7.783268e-06 -7.488579e-06 -5.353356e-06 -9.896844e-06 2.514793e-06 -6.460758e-06
<VARIANCE> 54
 5.521227e-02 2.661645e-02 2.369371e-02 1.901240e-02 1.603173e-02 1.480557e-02 1.485749e-02 1.497162e-02 1.429836e-02 1.333034e-02 1.376936e-02 1.312278e-02 1.193268e-02 1.179345e-02 1.257228e-02 9.331477e-03 1.140078e-02 1.041170e-02 3.912649e-05 1.747627e-05 1.243624e-05 1.809525e-05 1.252232e-05 1.180095e-05 1.237337e-05 1.042044e-05 1.219967e-05 1.044373e-05 1.094091e-05 9.586890e-06 8.466051e-06 9.185619e-06 8.475268e-06 5.540961e-06 6.700659e-06 7.225345e-06 5.734527e-08 3.161683e-08 3.011128e-08 3.402020e-08 2.335344e-08 2.999048e-08 2.538656e-08 2.456171e-08 2.494161e-08 2.243230e-08 2.705117e-08 2.099614e-08 2.099649e-08 1.999196e-08 2.069565e-08 1.453967e-08 1.724459e-08 1.567695e-08
<GCONST> -4.967606e+02
<STATE> 3
<MEAN> 54
 5.298226e-01 2.124266e-01 2.822055e-01 1.230308e-01 3.317082e-01 1.996726e-01 2.062934e-01 9.482289e-02 1.615272e-01 1.304775e-01 1.160039e-01 7.339055e-02 2.264682e-02 3.972055e-02 2.162656e-02 1.159367e-02 6.582874e-03 2.323486e-03 1.268865e-03 -8.475549e-04 -8.950871e-04 -7.765921e-04 -2.954449e-04 -8.470738e-05 7.125778e-04 6.573151e-04 1.642085e-04 1.272524e-04 6.339450e-04 -1.954153e-05 1.292100e-04 7.252392e-05 -1.031213e-04 -1.475450e-04 1.021821e-04 2.778943e-04 1.929900e-05 -1.379224e-05 -5.526061e-06 -1.047492e-05 -2.067784e-05 -6.020294e-06 -1.337315e-06 -1.234266e-05 -2.062117e-05 -8.137252e-06 -1.336411e-05 -1.345422e-05 -2.870551e-06 -4.942937e-06 -7.635732e-07 6.519426e-06 -1.703308e-06 -3.501067e-06
<VARIANCE> 54
 1.175376e-01 1.124531e-01 5.025762e-02 3.564721e-02 3.220358e-02 2.177650e-02 2.393152e-02 2.346034e-02 1.717697e-02 2.150018e-02 1.494906e-02 2.445918e-02 1.559183e-02 1.733346e-02 1.414684e-02 1.175841e-02 1.240262e-02 1.292278e-02 6.320718e-05 8.964376e-05 3.548095e-05 2.613984e-05 2.528407e-05 1.386024e-05 1.578471e-05 1.245334e-05 1.120932e-05 1.016425e-05 1.146092e-05 1.250212e-05 7.857802e-06 1.137893e-05 7.131799e-06 6.768656e-06 6.905912e-06 7.933237e-06 1.038447e-07 1.762666e-07 5.551513e-08 6.213227e-08 5.188672e-08 3.245732e-08 2.996482e-08 3.349454e-08 2.737855e-08 2.701096e-08 2.321110e-08 3.226269e-08 2.033241e-08 2.763008e-08 1.709629e-08 1.717117e-08 1.843480e-08 1.977807e-08
<GCONST> -4.771983e+02
<STATE> 4
<MEAN> 54
 7.319949e-01 1.552830e-01 2.462359e-01 6.075267e-02 2.644767e-01 1.876999e-01 2.285243e-01 1.418681e-01 1.476293e-01 1.270911e-01 1.244294e-01 6.030378e-02 3.328017e-02 3.899368e-02 -1.198662e-02 2.508342e-03 -2.557843e-03 -7.879985e-03 2.422257e-02 -1.485741e-02 -6.269226e-03 -1.091283e-02 -4.963688e-03 -3.566595e-03 -3.495706e-03 -3.241398e-03 -3.677528e-03 -2.894158e-03 -6.770962e-04 -2.556003e-03 -3.510658e-03 -1.765256e-03 -1.106022e-03 -8.606457e-04 -1.143105e-03 -6.794229e-04 9.242096e-04 -3.290099e-04 -1.897542e-04 -3.274701e-04 -1.698645e-04 -1.628981e-04 -1.519972e-04 -1.453016e-04 -1.160347e-04 -1.593388e-04 -8.902263e-05 -7.221378e-05 -8.088888e-05 -2.352332e-05 -4.961694e-05 -6.709189e-05 -4.432879e-05 4.897363e-06
<VARIANCE> 54
 1.413652e-01 1.549607e-01 4.775871e-02 6.031020e-02 2.912533e-02 1.967077e-02 2.019484e-02 2.225551e-02 2.326066e-02 2.074794e-02 1.903006e-02 2.722165e-02 1.271515e-02 1.568924e-02 1.251373e-02 1.230169e-02 1.019205e-02 1.069970e-02 1.810094e-04 1.491385e-04 3.666347e-05 5.579511e-05 2.425340e-05 3.074485e-05 1.526450e-05 2.133877e-05 1.294861e-05 1.468484e-05 1.555005e-05 1.443670e-05 9.018257e-06 7.526329e-06 4.450012e-06 9.601153e-06 6.749579e-06 7.039949e-06 2.245366e-07 3.184022e-07 9.866964e-08 1.065735e-07 5.453656e-08 5.834859e-08 3.784010e-08 3.427701e-08 3.153402e-08 2.732919e-08 4.698417e-08 3.538255e-08 2.636995e-08 2.451420e-08 2.165289e-08 2.075048e-08 1.644937e-08 2.197248e-08
<GCONST> -4.678820e+02
<STATE> 5
<MEAN> 54
 1.645544e+00 -3.354220e-01 -3.759418e-03 -3.089346e-01 1.170440e-01 -1.470265e-02 7.481906e-02 -1.612853e-02 1.715322e-02 -1.151336e-02 5.959607e-02 -3.978842e-02 -1.018820e-01 1.533435e-03 -4.834644e-02 -3.942215e-02 -5.974979e-02 -2.945468e-02 3.704447e-02 -1.500267e-02 -5.138468e-03 -1.381727e-02 -4.607277e-03 -8.018483e-03 -3.887229e-03 -5.518209e-03 -3.856573e-03 -6.462895e-03 -2.618984e-03 -3.207051e-03 -4.110587e-03 -1.561943e-03 -3.134894e-03 -3.198504e-03 -2.716192e-03 -1.385061e-03 -3.220658e-04 2.216571e-04 2.610505e-04 1.728558e-04 1.280844e-04 5.514458e-05 1.178029e-04 7.903961e-05 1.092812e-04 6.920900e-05 3.147353e-05 4.386698e-05 7.264388e-05 1.183212e-05 -2.362854e-05 -2.806166e-05 -4.616593e-06 -1.813934e-05
<VARIANCE> 54
 3.159570e-01 2.611070e-01 8.180390e-02 9.993148e-02 5.933025e-02 6.491555e-02 3.578094e-02 4.379816e-02 2.490710e-02 3.372305e-02 3.387555e-02 4.301697e-02 2.305135e-02 1.145609e-02 1.318477e-02 1.511338e-02 1.396326e-02 8.044441e-03 1.524335e-04 1.310904e-04 5.569259e-05 6.260724e-05 3.586859e-05 3.277733e-05 2.545568e-05 1.948145e-05 1.139716e-05 1.155626e-05 2.721925e-05 2.034381e-05 1.472816e-05 1.085487e-05 6.791012e-06 9.290882e-06 8.994171e-06 6.222977e-06 3.578634e-07 3.157360e-07 1.242839e-07 9.088399e-08 5.933024e-08 7.502452e-08 3.467980e-08 3.530003e-08 2.439581e-08 3.354211e-08 3.587516e-08 2.195499e-08 2.209743e-08 2.114963e-08 1.917384e-08 1.940917e-08 1.685117e-08 1.609320e-08
<GCONST> -4.579395e+02
<STATE> 6
<MEAN> 54
 2.178598e+00 -4.618823e-01 7.602388e-02 -4.401020e-01 3.388931e-02 -2.601856e-02 7.936947e-02 -5.100582e-02 -9.077927e-03 -6.067188e-02 1.004331e-02 -6.403153e-02 -7.964924e-02 -4.126739e-02 -1.208723e-01 -1.105127e-01 -9.185886e-02 -5.741462e-02 1.508102e-02 -5.220529e-03 1.954306e-03 -5.509726e-03 -2.149424e-03 -3.046278e-03 -1.104408e-03 -1.823240e-03 -1.326228e-03 -1.486818e-03 -1.000304e-03 -9.893940e-04 -8.741491e-04 -4.166756e-04 -9.349868e-04 -1.636051e-03 -1.057014e-03 -9.994656e-04 -3.875001e-04 1.531418e-04 8.243446e-06 1.184301e-04 2.064601e-05 3.442770e-05 2.033375e-05 3.526970e-05 7.665801e-06 5.617242e-05 1.745841e-05 3.291556e-05 2.057309e-05 3.010692e-05 3.686849e-05 3.685405e-05 3.925495e-05 2.715040e-05
<VARIANCE> 54
 4.121483e-01 2.746254e-01 7.879610e-02 1.027015e-01 4.768766e-02 4.708696e-02 3.998372e-02 5.677353e-02 2.564271e-02 2.383919e-02 2.949949e-02 6.679893e-02 2.237911e-02 1.496219e-02 1.577455e-02 1.477845e-02 1.549360e-02 1.132164e-02 2.776842e-04 1.266448e-04 2.047856e-05 5.329743e-05 1.239741e-05 1.519137e-05 1.123618e-05 1.818414e-05 5.716193e-06 6.942995e-06 7.711723e-06 1.934496e-05 8.459529e-06 1.052527e-05 7.607812e-06 5.115657e-06 5.445799e-06 6.110628e-06 4.284479e-07 2.605492e-07 5.736547e-08 1.191011e-07 2.915762e-08 2.692476e-08 3.348518e-08 3.490662e-08 1.547696e-08 2.105440e-08 1.735133e-08 3.400668e-08 1.719051e-08 2.006735e-08 1.869180e-08 1.116218e-08 1.169500e-08 1.510194e-08
<GCONST> -4.692092e+02
<STATE> 7
<MEAN> 54
 2.390590e+00 -4.285830e-01 1.515093e-01 -5.702980e-01 5.840269e-02 -2.666256e-01 3.675683e-02 -1.342481e-01 -6.297926e-02 -9.711799e-02 -1.381878e-02 -1.066714e-01 -9.587213e-02 -5.058361e-02 -1.183347e-01 -1.152504e-01 -1.348930e-01 -4.622087e-02 -2.278260e-03 4.913402e-03 2.961722e-03 2.022873e-03 1.714807e-03 -2.043605e-03 -5.433807e-04 -7.497255e-04 -5.422836e-04 5.188470e-04 -1.686766e-04 -4.029659e-04 8.784859e-04 -5.992860e-04 4.614790e-04 7.504228e-04 -1.885575e-04 5.318755e-04 -1.016341e-04 6.930115e-05 2.384887e-05 4.920766e-05 4.677170e-05 2.194875e-05 1.060222e-05 -3.652272e-06 1.416780e-05 5.555587e-07 2.781231e-06 8.913667e-07 2.850680e-06 -1.110886e-05 6.040143e-06 1.435989e-05 4.246369e-06 -2.125322e-06
<VARIANCE> 54
 2.212986e-01 1.920312e-01 1.086761e-01 1.086322e-01 7.661842e-02 9.837870e-02 6.596470e-02 5.518048e-02 2.480737e-02 3.100369e-02 6.952748e-02 8.584743e-02 3.214728e-02 3.421111e-02 1.998072e-02 1.623394e-02 2.263152e-02 1.728333e-02 3.185007e-05 3.945437e-05 1.871089e-05 2.198783e-05 2.290832e-05 1.350091e-05 1.382802e-05 8.050065e-06 1.069494e-05 1.017777e-05 9.711413e-06 1.073505e-05 8.352675e-06 7.467771e-06 6.894249e-06 6.333045e-06 8.444697e-06 7.487521e-06 1.098698e-07 6.115363e-08 3.553519e-08 4.175416e-08 3.050988e-08 2.720912e-08 2.934607e-08 1.670528e-08 1.781355e-08 1.996418e-08 1.877948e-08 1.607221e-08 1.620750e-08 1.519736e-08 1.623878e-08 1.551025e-08 1.297814e-08 1.508346e-08
<GCONST> -4.736147e+02
<STATE> 8
<MEAN> 54
 1.474174e+00 6.805625e-02 4.599480e-01 -2.793714e-01 3.769760e-01 -3.041394e-01 1.549225e-01 -1.925643e-01 3.856329e-02 -9.685440e-02 2.900497e-02 -1.002908e-01 -2.967830e-02 -9.922869e-02 -7.381295e-02 -4.441208e-02 -8.322806e-02 -2.890417e-02 -3.284645e-02 3.291504e-03 2.375942e-03 3.079264e-03 8.084205e-03 5.581739e-04 6.607988e-03 -9.029421e-04 5.330717e-03 -9.847815e-04 2.046380e-03 1.254810e-03 2.089148e-03 4.250359e-04 1.414769e-03 1.316738e-03 2.292808e-03 1.704525e-04 -1.749013e-04 -2.063756e-04 -1.222351e-04 -9.112441e-05 -4.148590e-05 -8.203276e-06 2.447908e-05 1.491537e-05 2.320310e-05 -4.463794e-06 3.206167e-05 2.809384e-05 4.438596e-05 4.241049e-05 3.604548e-05 4.483184e-06 2.050628e-05 1.220970e-05
<VARIANCE> 54
 5.325523e-01 1.714151e-01 7.678372e-02 7.064797e-02 9.109239e-02 6.813380e-02 7.411420e-02 4.704298e-02 4.134565e-02 2.870505e-02 6.355764e-02 3.655148e-02 2.457110e-02 2.723119e-02 1.776629e-02 1.141369e-02 1.888926e-02 1.706794e-02 1.495387e-04 1.073123e-04 4.411557e-05 4.326921e-05 3.374403e-05 2.841592e-05 2.826814e-05 2.357617e-05 1.886873e-05 1.695147e-05 2.917612e-05 2.276206e-05 1.591878e-05 1.474492e-05 1.215007e-05 7.468869e-06 8.365699e-06 7.232788e-06 3.002565e-07 1.132418e-07 6.467991e-08 6.509251e-08 6.677125e-08 4.400436e-08 4.953021e-08 4.362591e-08 4.252970e-08 3.260048e-08 3.163819e-08 2.447542e-08 2.937141e-08 1.937933e-08 2.630767e-08 1.754374e-08 2.125691e-08 1.704278e-08
<GCONST> -4.538164e+02
<STATE> 9
<MEAN> 54
 1.228349e-01 -1.566622e-01 3.241838e-01 -3.162544e-01 5.613421e-01 -2.872689e-01 3.837460e-01 -1.974169e-01 2.247193e-01 -9.852926e-02 1.422496e-01 -1.950653e-02 9.792782e-02 1.401417e-02 5.180732e-02 2.151367e-02 4.219584e-02 1.170695e-02 -3.674582e-03 -3.081597e-03 -1.739561e-03 -1.822490e-03 -9.663146e-04 -6.733008e-04 -4.716222e-04 -3.253134e-04 5.660207e-05 3.392065e-04 2.430584e-04 5.688748e-05 7.235174e-04 1.050278e-03 8.250698e-04 3.741628e-04 6.799958e-04 6.625468e-04 3.426872e-04 7.688296e-05 5.537386e-05 2.074017e-05 -4.971665e-05 -1.707179e-05 -6.301504e-05 -7.303629e-06 -4.944451e-05 6.828716e-07 -3.526460e-05 -2.897530e-05 -3.840742e-05 -1.976337e-05 -3.342691e-05 -1.691024e-05 -2.987361e-05 3.930433e-07
<VARIANCE> 54
 1.544105e-01 6.773809e-02 3.416310e-02 5.357727e-02 3.513056e-02 3.470291e-02 2.650948e-02 2.645449e-02 2.251616e-02 1.772856e-02 2.064749e-02 2.012118e-02 1.710963e-02 1.478677e-02 1.628505e-02 1.254454e-02 1.664971e-02 1.416099e-02 2.227831e-04 3.250464e-05 2.397101e-05 2.853302e-05 1.936671e-05 2.014166e-05 1.690137e-05 1.413134e-05 1.154918e-05 7.860747e-06 9.270393e-06 1.031030e-05 9.897697e-06 8.552175e-06 8.965249e-06 6.990960e-06 8.265015e-06 5.366413e-06 1.184289e-07 5.625425e-08 4.373555e-08 5.478539e-08 3.676504e-08 3.712021e-08 2.734804e-08 3.907603e-08 2.794491e-08 2.062025e-08 2.112142e-08 2.352937e-08 2.315954e-08 1.918474e-08 2.213940e-08 1.832617e-08 1.711820e-08 1.528121e-08
<GCONST> -4.787239e+02
<STATE> 10
<MEAN> 54
 1.279163e+00 -7.564100e-02 3.512058e-01 -3.704036e-01 2.640602e-01 -3.274229e-01 1.022072e-01 -2.385907e-01 8.058877e-03 -1.091987e-01 4.580558e-02 -8.530005e-02 3.615865e-02 -2.131483e-02 -1.325800e-02 -1.408639e-02 -4.897589e-02 2.493131e-02 4.028269e-02 1.369548e-03 -3.694667e-04 -1.659913e-03 -8.907814e-03 4.340655e-04 -7.417060e-03 -2.139145e-04 -6.328116e-03 -9.293490e-05 -2.109170e-03 -1.630863e-03 -2.460017e-03 -2.257975e-03 -2.447110e-03 -1.703357e-03 -3.400479e-03 -7.210748e-04 -6.294116e-05 -1.310553e-04 -6.059365e-05 -7.480600e-05 1.488651e-05 6.553520e-06 2.794892e-05 1.044555e-05 3.606691e-05 3.616854e-06 3.099902e-05 1.529811e-05 1.147281e-05 -1.426419e-05 5.520031e-06 -8.646857e-06 8.272927e-06 -2.297034e-05
<VARIANCE> 54
 7.955281e-01 1.103725e-01 6.218402e-02 6.149397e-02 6.985025e-02 4.953934e-02 6.097844e-02 4.055427e-02 4.716695e-02 2.716044e-02 4.860489e-02 2.942066e-02 2.358667e-02 3.342381e-02 1.614772e-02 1.299602e-02 2.397226e-02 1.334898e-02 2.146605e-04 9.209476e-05 4.913073e-05 4.872505e-05 2.691102e-05 4.074047e-05 3.017639e-05 3.719248e-05 2.580954e-05 2.224483e-05 3.623154e-05 1.978169e-05 1.246125e-05 2.410068e-05 1.080335e-05 9.442392e-06 8.268589e-06 5.848221e-06 8.196508e-07 2.115181e-07 8.758163e-08 1.161725e-07 7.982148e-08 5.883710e-08 6.543841e-08 4.641241e-08 5.970247e-08 3.839690e-08 4.625141e-08 2.913102e-08 2.869729e-08 2.663472e-08 2.525718e-08 2.075654e-08 2.183550e-08 1.835835e-08
<GCONST> -4.485590e+02
<STATE> 11
<MEAN> 54
 2.228771e+00 -4.838718e-01 1.330168e-01 -5.632163e-01 -4.324098e-02 -5.125297e-01 -1.736947e-01 -2.750030e-01 -1.323441e-03 -4.833126e-02 -2.581048e-01 -2.612996e-01 -4.884706e-02 -2.472461e-01 -1.213513e-01 -8.494749e-02 -1.898358e-01 -3.954210e-02 5.319808e-04 -2.203198e-03 5.971622e-04 -6.540084e-04 -1.477727e-05 -9.380672e-04 9.558466e-04 1.510245e-03 3.490053e-04 -1.023834e-03 -5.022376e-04 -8.814263e-04 -1.286213e-03 5.446849e-04 -7.108160e-04 -1.262807e-04 2.237166e-04 -1.262085e-03 -1.290984e-04 7.351427e-05 6.948000e-05 7.749676e-05 4.631335e-05 4.002163e-05 2.855665e-05 9.318596e-06 -1.953037e-07 -1.270802e-05 3.909041e-06 2.431453e-05 -5.544403e-06 2.556901e-05 1.204037e-05 1.433052e-05 1.328066e-05 3.257603e-06
<VARIANCE> 54
 1.851759e-01 2.215762e-01 6.547321e-02 8.934130e-02 4.411802e-02 1.111556e-01 3.675413e-02 6.134333e-02 2.515584e-02 2.697789e-02 7.250997e-02 3.458020e-02 2.574759e-02 2.545799e-02 1.876916e-02 1.320415e-02 1.800450e-02 1.356765e-02 3.758913e-05 4.378462e-05 2.978704e-05 2.275049e-05 1.604069e-05 1.464162e-05 1.101665e-05 1.220437e-05 9.066923e-06 1.079205e-05 8.548697e-06 8.514450e-06 7.056276e-06 6.049352e-06 6.553239e-06 6.660825e-06 6.988875e-06 4.701382e-06 1.596961e-07 6.169749e-08 4.840483e-08 4.280265e-08 3.134872e-08 3.389025e-08 2.586047e-08 2.726151e-08 2.161209e-08 2.310255e-08 1.996065e-08 1.896393e-08 1.670370e-08 1.725039e-08 1.770062e-08 1.451566e-08 1.319268e-08 1.326968e-08
<GCONST> -4.763707e+02
<STATE> 12
<MEAN> 54
 2.516086e+00 -3.485223e-01 3.357288e-01 -5.064455e-01 1.264611e-01 -1.460173e-01 3.135597e-02 -1.044983e-01 -1.305107e-01 -1.111542e-01 2.636234e-01 7.579152e-02 -4.750086e-02 5.585952e-02 -4.072786e-02 -9.326894e-02 -7.251783e-02 -3.742338e-02 2.342642e-04 -2.260125e-03 -2.369432e-05 2.156012e-03 2.252487e-03 2.228650e-04 -1.784215e-03 2.005781e-04 1.432450e-03 1.826347e-03 7.416673e-04 9.203826e-04 -1.128608e-03 -7.476844e-04 4.454110e-04 -8.801961e-05 2.825951e-04 -1.920198e-04 -1.285132e-04 1.098515e-04 4.277754e-05 8.070773e-05 4.102081e-05 -9.133282e-06 3.728268e-06 4.139818e-06 2.186994e-05 2.526223e-05 -2.034169e-05 -2.841951e-05 -5.936224e-06 -6.849769e-06 6.758958e-06 1.840724e-05 4.623493e-06 1.013056e-05
<VARIANCE> 54
 2.580631e-01 1.412847e-01 9.801882e-02 8.969900e-02 7.058264e-02 6.532317e-02 3.537067e-02 2.882825e-02 2.567059e-02 3.494543e-02 3.331668e-02 3.966828e-02 1.884993e-02 1.586438e-02 9.481546e-03 1.836811e-02 1.582169e-02 1.813764e-02 4.129603e-05 5.328437e-05 1.822032e-05 2.620915e-05 1.652697e-05 8.922782e-06 6.884155e-06 7.138589e-06 6.211980e-06 5.975335e-06 7.788313e-06 1.075272e-05 5.722412e-06 7.813786e-06 4.805166e-06 6.022529e-06 4.191385e-06 4.310910e-06 1.737076e-07 6.762708e-08 3.842154e-08 3.140690e-08 2.361103e-08 1.835767e-08 1.499522e-08 1.320921e-08 1.191654e-08 1.069041e-08 1.896335e-08 1.787935e-08 1.097295e-08 1.157485e-08 6.899225e-09 9.054967e-09 8.877823e-09 1.099067e-08
<GCONST> -4.884222e+02
<STATE> 13
<MEAN> 54
 1.967693e+00 -2.785176e-01 5.600605e-01 -1.726039e-01 2.266926e-01 -3.260565e-01 -3.634874e-02 -1.371146e-01 -8.032321e-03 -6.337266e-02 -4.951807e-02 -1.611867e-01 -1.655057e-01 -1.265734e-01 -7.817422e-02 -6.676893e-02 -1.214311e-01 -5.664259e-02 -1.064141e-02 9.355090e-04 9.100835e-03 7.580910e-03 2.513661e-03 2.590644e-03 2.211046e-03 1.685366e-03 8.521128e-04 5.969537e-04 -8.838925e-04 -1.433423e-04 -6.579236e-04 5.896409e-04 3.142421e-04 4.828795e-04 3.427441e-04 6.279770e-04 -7.423362e-05 -2.431209e-05 2.277526e-05 -1.509857e-05 -3.014627e-05 1.656493e-05 3.001974e-05 -6.153746e-07 -2.353414e-05 -1.526933e-05 -1.872398e-06 8.260317e-07 3.186649e-05 1.249407e-05 -9.324513e-06 -7.503153e-06 3.590488e-06 7.173684e-06
<VARIANCE> 54
 1.910785e-01 1.096603e-01 1.117931e-01 1.105135e-01 8.879202e-02 9.438972e-02 4.141496e-02 4.635543e-02 3.301506e-02 3.296927e-02 8.383646e-02 4.531140e-02 3.172181e-02 4.247022e-02 2.463615e-02 1.861785e-02 1.577869e-02 2.033831e-02 3.280253e-05 5.606192e-05 2.088641e-05 2.905332e-05 2.122844e-05 2.119170e-05 1.893112e-05 1.708090e-05 1.901505e-05 1.507652e-05 1.537241e-05 1.419924e-05 1.407690e-05 1.113386e-05 8.876597e-06 9.503896e-06 7.674255e-06 5.686565e-06 7.333173e-08 6.294339e-08 4.707272e-08 4.429664e-08 4.293649e-08 3.810348e-08 3.318488e-08 3.047323e-08 2.789554e-08 2.353440e-08 2.413980e-08 2.267038e-08 2.267025e-08 2.037793e-08 1.469542e-08 1.881054e-08 1.681632e-08 1.361942e-08
<GCONST> -4.659817e+02
<STATE> 14
<MEAN> 54
 1.317466e+00 -2.630083e-01 1.037254e+00 9.097835e-02 2.605635e-01 -1.419505e-01 1.163855e-01 -7.480527e-02 -1.379161e-02 -2.045574e-02 -3.241302e-02 -1.158394e-01 -1.157218e-01 -4.963594e-02 -4.860222e-02 -2.232154e-02 -6.515443e-02 -5.629983e-03 -1.908307e-02 9.594167e-04 6.225784e-03 -2.172604e-03 8.445487e-04 1.248306e-03 3.549952e-03 -1.946552e-03 4.631501e-04 2.805075e-04 3.366383e-04 1.237394e-03 3.141762e-03 1.714843e-03 6.510348e-04 1.741788e-03 2.023591e-03 1.086511e-03 -1.209317e-04 -5.157655e-05 -9.345550e-05 -1.769865e-04 2.673207e-05 -2.884552e-05 -1.039995e-05 -5.568249e-05 6.108251e-05 7.555979e-06 2.255926e-05 2.953952e-05 2.338626e-05 4.393218e-07 1.904113e-05 3.815675e-05 2.385447e-05 -8.024814e-07
<VARIANCE> 54
 1.595180e-01 7.817179e-02 9.359393e-02 5.370181e-02 7.185679e-02 3.923855e-02 2.813690e-02 4.021833e-02 4.597495e-02 2.835215e-02 3.845466e-02 2.100714e-02 2.258441e-02 3.719922e-02 2.503671e-02 1.967761e-02 2.388131e-02 2.336523e-02 9.639988e-05 3.525058e-05 3.056283e-05 3.367861e-05 1.842182e-05 1.700067e-05 2.587548e-05 1.185182e-05 1.426231e-05 1.146914e-05 1.439221e-05 1.217542e-05 1.013622e-05 1.415280e-05 1.718335e-05 1.125554e-05 9.921663e-06 9.219886e-06 5.859057e-08 5.822480e-08 6.035248e-08 3.553058e-08 2.944357e-08 2.867589e-08 2.805150e-08 2.758694e-08 2.502433e-08 2.422715e-08 1.788059e-08 2.156062e-08 1.789421e-08 2.257205e-08 2.699360e-08 2.077941e-08 2.245409e-08 1.590488e-08
<GCONST> -4.694215e+02
<STATE> 15
<MEAN> 54
 4.028164e-01 -2.793171e-01 1.141865e+00 -2.186943e-01 3.954373e-01 -1.414273e-01 2.121541e-01 -1.977820e-01 1.037968e-01 -2.378017e-02 1.877243e-02 -2.720134e-02 4.404789e-02 4.043268e-02 -1.061339e-02 6.553130e-02 2.129426e-02 3.614775e-02 -1.832632e-02 -1.475173e-03 -6.524012e-04 -7.697171e-03 1.130257e-03 -6.168584e-05 -4.046711e-05 -2.378310e-03 2.176509e-03 -7.520961e-04 7.875669e-04 1.791044e-03 2.313246e-03 7.735041e-04 1.742840e-03 1.392920e-03 2.775537e-04 1.025028e-03 2.152596e-04 3.207194e-05 -4.556455e-05 7.657337e-05 -3.230845e-05 -1.233947e-06 -4.507979e-05 4.467718e-05 -3.813109e-05 -1.758739e-05 -1.471895e-05 -3.001995e-05 -6.298220e-05 -2.874146e-05 -9.088943e-06 -3.566912e-05 -3.104112e-05 -1.023579e-05
<VARIANCE> 54
 1.362518e-01 7.423113e-02 4.781135e-02 5.832641e-02 3.833764e-02 2.916810e-02 3.714878e-02 2.670091e-02 2.736056e-02 2.865980e-02 2.227842e-02 2.127104e-02 2.101664e-02 1.613772e-02 1.888358e-02 2.026166e-02 1.980936e-02 1.873547e-02 6.570915e-05 3.212434e-05 2.292813e-05 1.808730e-05 1.968809e-05 1.388786e-05 1.807191e-05 1.589813e-05 1.655046e-05 1.619376e-05 1.419496e-05 8.857914e-06 1.179572e-05 9.852174e-06 7.379312e-06 7.176242e-06 1.233567e-05 9.901170e-06 5.107969e-08 4.209886e-08 3.694056e-08 2.689951e-08 2.280137e-08 2.516183e-08 3.461411e-08 2.584117e-08 2.755687e-08 2.838317e-08 2.605428e-08 2.309516e-08 2.038198e-08 2.151535e-08 1.990259e-08 1.778318e-08 2.478515e-08 1.802797e-08
<GCONST> -4.774534e+02
<STATE> 16
<MEAN> 54
 -2.766928e-02 -2.544187e-01 1.096346e+00 -3.970050e-01 3.811329e-01 -1.277222e-01 1.926801e-01 -2.446971e-01 9.714191e-02 -5.010929e-02 9.726600e-03 -1.750181e-04 4.361522e-02 4.038082e-02 3.039086e-02 8.860201e-02 3.011004e-02 5.211267e-02 2.885082e-04 1.122900e-03 3.156960e-04 3.703384e-04 -3.572639e-04 7.974015e-04 -8.250896e-05 5.180669e-04 -3.249673e-04 -3.195278e-04 -6.781351e-04 6.582406e-05 -4.995696e-04 -4.846962e-05 -4.694719e-04 -2.550763e-04 -5.158716e-05 -1.764694e-04 1.013213e-04 3.132495e-05 3.565447e-05 5.791262e-05 -1.034134e-05 2.205774e-05 9.453411e-07 1.189118e-05 -1.218454e-05 8.144324e-06 -3.739823e-06 3.620863e-06 -8.061334e-06 9.239367e-07 -1.798290e-05 -1.758869e-05 -1.744221e-05 -3.219413e-06
<VARIANCE> 54
 1.063686e-01 6.760018e-02 4.450856e-02 4.123143e-02 4.552335e-02 3.259112e-02 3.143845e-02 2.309664e-02 2.450673e-02 2.629534e-02 1.627836e-02 1.470331e-02 2.038602e-02 1.627742e-02 1.491107e-02 1.615782e-02 1.510495e-02 1.593740e-02 3.062981e-05 1.563787e-05 1.210121e-05 1.351448e-05 9.151869e-06 1.317060e-05 8.712176e-06 9.425177e-06 9.510304e-06 9.722692e-06 7.434153e-06 5.490428e-06 6.893557e-06 5.912897e-06 6.148713e-06 7.647745e-06 6.310290e-06 4.992130e-06 5.297815e-08 3.220816e-08 2.622882e-08 2.381163e-08 2.141460e-08 3.182803e-08 2.101069e-08 2.454800e-08 2.622971e-08 2.175543e-08 1.896161e-08 1.806664e-08 1.759232e-08 1.735785e-08 1.469256e-08 1.956507e-08 1.598367e-08 1.490262e-08
<GCONST> -4.923864e+02
<STATE> 17
<MEAN> 54
 3.355602e-01 -8.725790e-02 1.181233e+00 -2.304905e-01 3.492645e-01 -4.088002e-02 1.702114e-01 -1.713529e-01 7.165143e-02 -8.005984e-02 -3.402696e-02 -7.187584e-03 -2.446629e-02 5.242056e-03 -3.302620e-02 2.697100e-02 -2.614516e-02 3.251217e-02 2.178814e-02 1.318969e-02 3.420273e-03 8.981016e-03 -8.416006e-04 3.868444e-03 -1.929180e-03 1.562329e-03 -2.528986e-03 -1.336322e-03 -2.129235e-03 -1.594024e-03 -3.387121e-03 -2.986854e-03 -2.564221e-03 -1.957909e-03 -1.732004e-03 -1.638949e-03 5.187922e-04 2.067590e-04 1.661142e-05 1.545647e-04 8.105965e-06 -1.052192e-05 -8.493628e-05 -2.186150e-05 -5.962429e-05 -6.708050e-05 -7.680889e-05 -7.000491e-05 -4.270790e-05 -5.134515e-05 -1.150473e-05 3.585762e-06 1.399663e-05 -3.789170e-05
<VARIANCE> 54
 1.423746e-01 9.850863e-02 7.015000e-02 6.141289e-02 5.480293e-02 3.227011e-02 2.796832e-02 2.468321e-02 2.163993e-02 1.649666e-02 1.678502e-02 1.617442e-02 2.120484e-02 1.534010e-02 1.769509e-02 1.714741e-02 1.457980e-02 1.649635e-02 1.101868e-04 3.257936e-05 1.843310e-05 2.235782e-05 1.239958e-05 1.408756e-05 1.115983e-05 1.042181e-05 1.161470e-05 1.061767e-05 8.830642e-06 9.151418e-06 9.327841e-06 8.420740e-06 6.753853e-06 8.108491e-06 7.681908e-06 8.238949e-06 1.016547e-07 8.478367e-08 6.896571e-08 4.288713e-08 3.883647e-08 4.107890e-08 2.113163e-08 3.128864e-08 2.959343e-08 2.804722e-08 2.919975e-08 1.818681e-08 2.267950e-08 2.555377e-08 1.975674e-08 1.884974e-08 1.780505e-08 1.657001e-08
<GCONST> -4.786599e+02
<STATE> 18
<MEAN> 54
 1.248513e+00 2.942553e-01 1.330230e+00 9.672866e-02 2.897701e-01 1.904350e-02 3.326871e-02 -1.666992e-01 -3.177096e-02 -1.881046e-01 -1.518852e-01 -8.314595e-02 -1.196424e-01 -7.886477e-02 -1.091219e-01 -1.697973e-02 -5.122930e-02 -4.099980e-02 2.160499e-02 5.576489e-03 4.294914e-03 6.837395e-03 -3.470687e-03 1.065753e-03 -4.387817e-03 -8.100316e-04 -2.029836e-03 -3.508180e-03 -1.885907e-03 -1.695846e-03 -1.594589e-03 -1.093953e-03 -1.189247e-03 -1.208609e-03 -4.038684e-04 -1.822907e-03 -3.971359e-04 -2.517969e-04 -2.552121e-05 -1.569864e-04 -1.810650e-05 -1.935860e-05 5.130820e-05 -1.334115e-05 6.379463e-05 3.557442e-05 8.677402e-05 4.496512e-05 4.755328e-05 5.365198e-05 4.420239e-05 1.536832e-05 1.773181e-05 2.637081e-05
<VARIANCE> 54
 1.709259e-01 9.215171e-02 2.288399e-01 7.733360e-02 6.337259e-02 3.220537e-02 3.259816e-02 3.199124e-02 2.686260e-02 2.296423e-02 2.658335e-02 2.733494e-02 1.460964e-02 1.173394e-02 1.463484e-02 1.919407e-02 1.324034e-02 1.310110e-02 1.082260e-04 9.181676e-05 3.277310e-05 3.765609e-05 1.945716e-05 1.353678e-05 1.197877e-05 1.855617e-05 1.769888e-05 1.274662e-05 2.327532e-05 1.753428e-05 7.213162e-06 5.839912e-06 6.911741e-06 8.158814e-06 7.178624e-06 9.138752e-06 1.057555e-07 7.317892e-08 1.166619e-07 4.206451e-08 4.305266e-08 4.133613e-08 2.927088e-08 2.650400e-08 2.693304e-08 2.547643e-08 2.788000e-08 1.988257e-08 1.673476e-08 1.684575e-08 1.845858e-08 1.976490e-08 1.767610e-08 1.644409e-08
<GCONST> -4.714850e+02
<STATE> 19
<MEAN> 54
 1.537986e+00 4.507890e-01 1.433994e+00 3.195742e-02 1.564200e-01 4.766903e-02 -3.443448e-02 -2.856953e-01 -1.550749e-01 -2.183975e-01 -8.629055e-02 -2.028553e-01 -1.605950e-01 -5.850588e-02 -5.902534e-02 -7.568185e-02 -1.016879e-01 -5.016819e-02 -5.657693e-04 2.216316e-04 -1.105979e-04 6.190300e-04 -3.550641e-04 3.494608e-04 1.947088e-04 3.521995e-04 -1.082565e-05 6.337089e-04 -1.814402e-04 1.802187e-04 -2.244516e-05 1.172607e-04 6.516796e-05 3.206723e-05 2.586357e-04 -2.909758e-05 -4.097304e-05 7.080830e-06 -2.454438e-05 1.327058e-05 5.920887e-06 -4.489101e-06 3.171682e-06 8.116413e-06 3.592135e-06 1.095184e-05 -1.319575e-05 7.599866e-06 1.048901e-06 -6.180303e-06 -2.876483e-06 7.871694e-07 1.668674e-06 -1.351694e-06
<VARIANCE> 54
 5.899898e-02 6.725970e-02 2.488510e-01 7.614206e-02 4.348052e-02 2.508481e-02 3.250588e-02 4.703968e-02 2.569603e-02 3.122723e-02 4.404436e-02 1.952103e-02 1.555176e-02 1.220019e-02 1.471251e-02 1.627774e-02 1.155945e-02 1.647447e-02 1.617576e-05 1.323527e-05 2.944543e-05 7.865152e-06 5.662570e-06 7.187007e-06 5.320220e-06 4.930301e-06 5.818257e-06 4.665203e-06 5.201008e-06 4.914793e-06 3.905945e-06 3.079862e-06 3.676321e-06 2.486629e-06 2.857686e-06 2.725417e-06 3.735576e-08 3.615163e-08 1.024960e-07 2.153271e-08 1.699230e-08 2.005945e-08 1.422083e-08 1.431109e-08 1.474161e-08 1.436138e-08 1.551228e-08 1.253169e-08 1.092095e-08 8.296037e-09 9.624166e-09 7.841350e-09 9.698745e-09 8.585976e-09
<GCONST> -5.039002e+02
<STATE> 20
<MEAN> 54
 1.506713e+00 2.823055e-01 1.357041e+00 3.695975e-01 1.884643e-01 1.112079e-01 -1.975057e-02 -6.199716e-02 -6.682447e-03 -1.944019e-01 -2.017937e-01 -3.554036e-02 -1.183719e-01 -1.171220e-01 -1.018549e-01 -3.759641e-02 -1.932562e-02 -6.418326e-02 -1.053085e-03 2.174997e-03 -3.105626e-03 1.101558e-03 9.189623e-05 8.760003e-05 1.002388e-04 2.970930e-04 -5.386103e-04 1.163338e-04 -6.883268e-05 -1.410299e-04 1.906866e-04 -3.770591e-04 9.613621e-05 -1.039500e-05 -1.729319e-04 -2.559565e-05 -2.491218e-05 2.819550e-05 -3.555175e-05 -1.734476e-05 1.784279e-05 -7.479028e-07 1.073653e-05 1.937977e-06 -4.626961e-06 5.768931e-06 1.113409e-05 -7.443934e-06 6.128971e-06 9.473648e-06 -9.541937e-08 1.642819e-06 -3.692946e-07 9.482473e-06
<VARIANCE> 54
 4.793177e-02 1.877380e-01 2.464346e-01 5.075600e-02 4.101989e-02 2.070954e-02 2.292999e-02 2.018513e-02 2.286283e-02 2.664291e-02 2.650705e-02 2.381134e-02 1.481635e-02 1.495348e-02 1.391677e-02 1.460220e-02 1.417211e-02 1.121464e-02 1.789834e-05 2.376617e-05 3.286112e-05 9.798508e-06 1.049831e-05 5.566996e-06 5.422617e-06 4.317393e-06 4.707882e-06 4.983989e-06 4.862745e-06 4.108321e-06 4.302152e-06 4.755041e-06 3.341195e-06 4.041931e-06 3.622645e-06 3.855689e-06 5.993805e-08 6.369550e-08 1.444418e-07 3.647448e-08 2.672004e-08 1.659161e-08 1.909893e-08 1.397900e-08 1.403875e-08 1.715308e-08 1.851477e-08 1.583200e-08 1.313560e-08 1.804379e-08 1.266988e-08 1.300217e-08 1.412013e-08 1.417525e-08
<GCONST> -4.977366e+02
<STATE> 21
<MEAN> 54
 1.210115e+00 5.820576e-01 8.549174e-01 3.211299e-01 2.392689e-01 8.479641e-02 5.563793e-02 -6.600141e-02 -6.450264e-02 -1.149741e-01 -1.261042e-01 -7.974372e-02 -9.807196e-02 -7.711352e-02 -7.955655e-02 -3.444293e-02 -4.446455e-02 -4.909289e-02 -1.175964e-02 -5.444416e-04 -1.370634e-02 -7.066038e-04 2.741980e-03 1.419007e-03 4.068592e-03 4.410606e-03 2.676931e-03 3.712214e-03 3.611429e-03 2.077098e-03 1.868117e-03 2.570767e-03 1.530140e-03 4.450098e-04 1.167916e-03 1.205691e-03 -2.178895e-04 -1.399932e-04 -3.230901e-05 -6.059101e-05 -6.819381e-06 4.704748e-05 6.413619e-05 6.219592e-05 7.323119e-05 4.489064e-05 8.378683e-05 7.882534e-05 3.593893e-05 4.218629e-05 4.545577e-05 2.601581e-05 1.868140e-05 1.186990e-05
<VARIANCE> 54
 9.963629e-02 6.877229e-02 1.759133e-01 6.752796e-02 3.724479e-02 1.901773e-02 2.445795e-02 2.982128e-02 2.328032e-02 2.210034e-02 2.262210e-02 1.944664e-02 1.938502e-02 1.612460e-02 1.311976e-02 1.445069e-02 1.081214e-02 1.181199e-02 7.484192e-05 7.038346e-05 7.933428e-05 3.849161e-05 1.687510e-05 1.452653e-05 1.328845e-05 1.509511e-05 1.562183e-05 1.440159e-05 1.607445e-05 1.459728e-05 8.415088e-06 1.041880e-05 8.413190e-06 5.804678e-06 3.988479e-06 5.758048e-06 1.383742e-07 7.950425e-08 2.779408e-07 6.709440e-08 3.673625e-08 2.881952e-08 3.361466e-08 2.927869e-08 3.677300e-08 3.055882e-08 2.365390e-08 2.395849e-08 2.435932e-08 1.843069e-08 2.249342e-08 1.233634e-08 1.234469e-08 1.804238e-08
<GCONST> -4.739875e+02
<STATE> 22
<MEAN> 54
 6.848624e-01 4.475372e-01 5.172545e-01 2.531959e-01 2.875779e-01 1.786286e-01 2.046646e-01 8.940510e-02 6.679416e-02 2.695911e-02 3.645978e-02 3.436223e-02 -5.585028e-03 2.358513e-02 -1.020275e-02 4.573496e-03 6.024050e-03 -2.950592e-03 -1.426998e-02 -4.049214e-03 -5.769496e-03 -1.602112e-03 5.577492e-04 2.100748e-03 4.155432e-03 3.533568e-03 4.471974e-03 3.495540e-03 4.688208e-03 3.677428e-03 2.887183e-03 1.951750e-03 1.677548e-03 1.065066e-03 3.690526e-04 1.444711e-03 3.121705e-04 8.061203e-05 1.655859e-04 4.973916e-05 -3.059169e-05 -7.850597e-05 -8.142414e-05 -9.546932e-05 -6.306432e-05 -7.195339e-05 -9.919841e-05 -8.236470e-05 -3.314745e-05 -8.125928e-05 -6.047188e-05 -1.968769e-05 -3.947472e-05 -9.310400e-06
<VARIANCE> 54
 8.660963e-02 4.664388e-02 4.038546e-02 2.126046e-02 2.606678e-02 2.315304e-02 1.902772e-02 2.022394e-02 1.799260e-02 1.426426e-02 1.341215e-02 1.400737e-02 1.215021e-02 1.170670e-02 8.084933e-03 9.998154e-03 1.107836e-02 1.452190e-02 5.337247e-05 1.687729e-05 2.048164e-05 1.418419e-05 1.254786e-05 1.117131e-05 7.934062e-06 1.753684e-05 8.593882e-06 1.078171e-05 1.039464e-05 9.865197e-06 9.534859e-06 8.419376e-06 6.415006e-06 9.037020e-06 9.582152e-06 6.474012e-06 9.462596e-08 4.617225e-08 6.300131e-08 2.929321e-08 3.658519e-08 3.706338e-08 2.773072e-08 2.537316e-08 3.128709e-08 2.872715e-08 2.588841e-08 2.549887e-08 3.033330e-08 1.604751e-08 1.519514e-08 1.714066e-08 2.241745e-08 1.890800e-08
<GCONST> -4.893132e+02
<STATE> 23
<MEAN> 54
 5.386570e-01 4.497018e-01 4.059531e-01 2.257328e-01 2.842988e-01 1.584194e-01 2.251822e-01 1.123921e-01 1.228111e-01 8.039404e-02 7.048114e-02 6.625492e-02 3.090004e-02 3.451855e-02 1.394623e-02 2.386366e-02 1.428447e-02 9.657586e-03 -1.459065e-05 3.261269e-04 -7.435997e-04 -5.896749e-04 -3.397696e-04 -5.116590e-04 -2.149645e-04 -5.229036e-04 1.322002e-04 1.289428e-04 -2.887860e-04 -3.214631e-04 1.910669e-04 -1.191690e-04 1.864872e-04 2.126750e-04 3.218129e-04 1.448552e-05 2.024793e-05 8.707434e-06 1.748064e-07 -3.542315e-06 -8.293097e-06 -4.654833e-06 -8.878198e-06 -1.628053e-05 -1.383351e-05 -8.032472e-06 -1.030429e-05 -1.306230e-05 -2.807684e-06 -3.611416e-06 -7.352887e-07 -2.211210e-06 -6.686700e-07 -5.856983e-06
<VARIANCE> 54
 5.979672e-02 3.061872e-02 2.307694e-02 1.860709e-02 1.728519e-02 1.745964e-02 1.456739e-02 1.774028e-02 1.698961e-02 1.549379e-02 1.261230e-02 1.448329e-02 1.139156e-02 9.722487e-03 9.394885e-03 1.254937e-02 1.064732e-02 1.007406e-02 2.638885e-05 1.262441e-05 1.017589e-05 8.970531e-06 9.177497e-06 8.711260e-06 8.215142e-06 9.167072e-06 1.033826e-05 8.199319e-06 6.881814e-06 8.347883e-06 6.443411e-06 5.411307e-06 5.300036e-06 7.219126e-06 6.092622e-06 5.806593e-06 6.290548e-08 3.351494e-08 2.711163e-08 2.527256e-08 2.539952e-08 2.589045e-08 2.121872e-08 2.734635e-08 2.757494e-08 2.531949e-08 1.951890e-08 2.009265e-08 1.747333e-08 1.534039e-08 1.421280e-08 1.859472e-08 1.574825e-08 1.512799e-08
<GCONST> -5.025444e+02
<STATE> 24
<MEAN> 54
 4.957912e-01 3.349154e-01 2.858254e-01 1.094264e-01 1.593551e-01 4.808839e-02 1.584710e-01 -2.171080e-02 9.187266e-02 2.240088e-02 3.242438e-02 -7.702854e-03 3.825910e-02 -3.459191e-03 3.622181e-03 2.542405e-02 6.630508e-03 1.991503e-02 -8.965774e-03 -6.869252e-03 -7.287370e-03 -3.360098e-03 -5.417705e-03 -2.377310e-03 -4.654907e-03 -2.303411e-03 -2.489765e-03 -1.432265e-03 -7.993702e-04 -7.906208e-04 -7.480205e-04 -5.880296e-04 -9.763523e-04 -5.405493e-04 -5.364854e-04 -7.022639e-04 -1.197228e-04 -1.256041e-04 -3.261405e-05 -1.616697e-05 4.838511e-06 2.600562e-05 -3.285916e-05 6.561359e-05 -1.854764e-05 2.567303e-05 -6.335162e-06 3.646569e-05 -2.537856e-05 2.144673e-05 3.831747e-06 -1.092956e-05 2.333115e-05 -1.110350e-05
<VARIANCE> 54
 1.628158e-01 8.126968e-02 6.689813e-02 3.624312e-02 4.063739e-02 1.994031e-02 2.815373e-02 2.430563e-02 2.179667e-02 1.391741e-02 1.180712e-02 1.143854e-02 1.150694e-02 9.290546e-03 1.150286e-02 8.658033e-03 8.568574e-03 5.238364e-03 1.099845e-04 8.427563e-05 2.727049e-05 2.687601e-05 1.367749e-05 1.323389e-05 1.448481e-05 1.835190e-05 1.808764e-05 7.132359e-06 5.451139e-06 7.281662e-06 6.230061e-06 4.831050e-06 4.692299e-06 4.642680e-06 4.597308e-06 2.880103e-06 2.781359e-07 2.278721e-07 1.066687e-07 7.447457e-08 4.544250e-08 2.889240e-08 4.486926e-08 5.365800e-08 4.117998e-08 2.447976e-08 1.542512e-08 1.849217e-08 1.708455e-08 1.436689e-08 1.316640e-08 9.817313e-09 1.202556e-08 1.116700e-08
<GCONST> -4.856245e+02
<TRANSP> 25
 0.000000e+00 1.000000e+00 0.000000e+00 0.000000e+00 0.000000e+00 0.000000e+00 0.000000e+00 0.000000e+00 0.000000e+00 0.000000e+00 0.000000e+00 0.000000e+00 0.000000e+00 0.000000e+00 0.000000e+00 0.000000e+00 0.000000e+00 0.000000e+00 0.000000e+00 0.000000e+00 0.000000e+00 0.000000e+00 0.000000e+00 0.000000e+00 0.000000e+00
 0.000000e+00 9.901543e-01 9.845762e-03 0.000000e+00 0.000000e+00 0.000000e+00 0.000000e+00 0.000000e+00 0.000000e+00 0.000000e+00 0.000000e+00 0.000000e+00 0.000000e+00 0.000000e+00 0.000000e+00 0.000000e+00 0.000000e+00 0.000000e+00 0.000000e+00 0.000000e+00 0.000000e+00 0.000000e+00 0.000000e+00 0.000000e+00 0.000000e+00
 0.000000e+00 0.000000e+00 9.867771e-01 1.322285e-02 0.000000e+00 0.000000e+00 0.000000e+00 0.000000e+00 0.000000e+00 0.000000e+00 0.000000e+00 0.000000e+00 0.000000e+00 0.000000e+00 0.000000e+00 0.000000e+00 0.000000e+00 0.000000e+00 0.000000e+00 0.000000e+00 0.000000e+00 0.000000e+00 0.000000e+00 0.000000e+00 0.000000e+00
 0.000000e+00 0.000000e+00 0.000000e+00 9.508644e-01 4.913561e-02 0.000000e+00 0.000000e+00 0.000000e+00 0.000000e+00 0.000000e+00 0.000000e+00 0.000000e+00 0.000000e+00 0.000000e+00 0.000000e+00 0.000000e+00 0.000000e+00 0.000000e+00 0.000000e+00 0.000000e+00 0.000000e+00 0.000000e+00 0.000000e+00 0.000000e+00 0.000000e+00
 0.000000e+00 0.000000e+00 0.000000e+00 0.000000e+00 9.524222e-01 4.757783e-02 0.000000e+00 0.000000e+00 0.000000e+00 0.000000e+00 0.000000e+00 0.000000e+00 0.000000e+00 0.000000e+00 0.000000e+00 0.000000e+00 0.000000e+00 0.000000e+00 0.000000e+00 0.000000e+00 0.000000e+00 0.000000e+00 0.000000e+00 0.000000e+00 0.000000e+00
 0.000000e+00 0.000000e+00 0.000000e+00 0.000000e+00 0.000000e+00 9.686673e-01 3.133267e-02 0.000000e+00 0.000000e+00 0.000000e+00 0.000000e+00 0.000000e+00 0.000000e+00 0.000000e+00 0.000000e+00 0.000000e+00 0.000000e+00 0.000000e+00 0.000000e+00 0.000000e+00 0.000000e+00 0.000000e+00 0.000000e+00 0.000000e+00 0.000000e+00
 0.000000e+00 0.000000e+00 0.000000e+00 0.000000e+00 0.000000e+00 0.000000e+00 9.879851e-01 1.201487e-02 0.000000e+00 0.000000e+00 0.000000e+00 0.000000e+00 0.000000e+00 0.000000e+00 0.000000e+00 0.000000e+00 0.000000e+00 0.000000e+00 0.000000e+00 0.000000e+00 0.000000e+00 0.000000e+00 0.000000e+00 0.000000e+00 0.000000e+00
 0.000000e+00 0.000000e+00 0.000000e+00 0.000000e+00 0.000000e+00 0.000000e+00 0.000000e+00 9.802599e-01 1.974010e-02 0.000000e+00 0.000000e+00 0.000000e+00 0.000000e+00 0.000000e+00 0.000000e+00 0.000000e+00 0.000000e+00 0.000000e+00 0.000000e+00 0.000000e+00 0.000000e+00 0.000000e+00 0.000000e+00 0.000000e+00 0.000000e+00
 0.000000e+00 0.000000e+00 0.000000e+00 0.000000e+00 0.000000e+00 0.000000e+00 0.000000e+00 0.000000e+00 9.870564e-01 1.294360e-02 0.000000e+00 0.000000e+00 0.000000e+00 0.000000e+00 0.000000e+00 0.000000e+00 0.000000e+00 0.000000e+00 0.000000e+00 0.000000e+00 0.000000e+00 0.000000e+00 0.000000e+00 0.000000e+00 0.000000e+00
 0.000000e+00 0.000000e+00 0.000000e+00 0.000000e+00 0.000000e+00 0.000000e+00 0.000000e+00 0.000000e+00 0.000000e+00 9.797111e-01 2.028897e-02 0.000000e+00 0.000000e+00 0.000000e+00 0.000000e+00 0.000000e+00 0.000000e+00 0.000000e+00 0.000000e+00 0.000000e+00 0.000000e+00 0.000000e+00 0.000000e+00 0.000000e+00 0.000000e+00
 0.000000e+00 0.000000e+00 0.000000e+00 0.000000e+00 0.000000e+00 0.000000e+00 0.000000e+00 0.000000e+00 0.000000e+00 0.000000e+00 9.777995e-01 2.220044e-02 0.000000e+00 0.000000e+00 0.000000e+00 0.000000e+00 0.000000e+00 0.000000e+00 0.000000e+00 0.000000e+00 0.000000e+00 0.000000e+00 0.000000e+00 0.000000e+00 0.000000e+00
 0.000000e+00 0.000000e+00 0.000000e+00 0.000000e+00 0.000000e+00 0.000000e+00 0.000000e+00 0.000000e+00 0.000000e+00 0.000000e+00 0.000000e+00 9.774400e-01 2.256000e-02 0.000000e+00 0.000000e+00 0.000000e+00 0.000000e+00 0.000000e+00 0.000000e+00 0.000000e+00 0.000000e+00 0.000000e+00 0.000000e+00 0.000000e+00 0.000000e+00
 0.000000e+00 0.000000e+00 0.000000e+00 0.000000e+00 0.000000e+00 0.000000e+00 0.000000e+00 0.000000e+00 0.000000e+00 0.000000e+00 0.000000e+00 0.000000e+00 9.833157e-01 1.668429e-02 0.000000e+00 0.000000e+00 0.000000e+00 0.000000e+00 0.000000e+00 0.000000e+00 0.000000e+00 0.000000e+00 0.000000e+00 0.000000e+00 0.000000e+00
 0.000000e+00 0.000000e+00 0.000000e+00 0.000000e+00 0.000000e+00 0.000000e+00 0.000000e+00 0.000000e+00 0.000000e+00 0.000000e+00 0.000000e+00 0.000000e+00 0.000000e+00 9.762533e-01 2.374667e-02 0.000000e+00 0.000000e+00 0.000000e+00 0.000000e+00 0.000000e+00 0.000000e+00 0.000000e+00 0.000000e+00 0.000000e+00 0.000000e+00
 0.000000e+00 0.000000e+00 0.000000e+00 0.000000e+00 0.000000e+00 0.000000e+00 0.000000e+00 0.000000e+00 0.000000e+00 0.000000e+00 0.000000e+00 0.000000e+00 0.000000e+00 0.000000e+00 9.741080e-01 2.589198e-02 0.000000e+00 0.000000e+00 0.000000e+00 0.000000e+00 0.000000e+00 0.000000e+00 0.000000e+00 0.000000e+00 0.000000e+00
 0.000000e+00 0.000000e+00 0.000000e+00 0.000000e+00 0.000000e+00 0.000000e+00 0.000000e+00 0.000000e+00 0.000000e+00 0.000000e+00 0.000000e+00 0.000000e+00 0.000000e+00 0.000000e+00 0.000000e+00 9.858824e-01 1.411761e-02 0.000000e+00 0.000000e+00 0.000000e+00 0.000000e+00 0.000000e+00 0.000000e+00 0.000000e+00 0.000000e+00
 0.000000e+00 0.000000e+00 0.000000e+00 0.000000e+00 0.000000e+00 0.000000e+00 0.000000e+00 0.000000e+00 0.000000e+00 0.000000e+00 0.000000e+00 0.000000e+00 0.000000e+00 0.000000e+00 0.000000e+00 0.000000e+00 9.623549e-01 3.764512e-02 0.000000e+00 0.000000e+00 0.000000e+00 0.000000e+00 0.000000e+00 0.000000e+00 0.000000e+00
 0.000000e+00 0.000000e+00 0.000000e+00 0.000000e+00 0.000000e+00 0.000000e+00 0.000000e+00 0.000000e+00 0.000000e+00 0.000000e+00 0.000000e+00 0.000000e+00 0.000000e+00 0.000000e+00 0.000000e+00 0.000000e+00 0.000000e+00 9.706852e-01 2.931486e-02 0.000000e+00 0.000000e+00 0.000000e+00 0.000000e+00 0.000000e+00 0.000000e+00
 0.000000e+00 0.000000e+00 0.000000e+00 0.000000e+00 0.000000e+00 0.000000e+00 0.000000e+00 0.000000e+00 0.000000e+00 0.000000e+00 0.000000e+00 0.000000e+00 0.000000e+00 0.000000e+00 0.000000e+00 0.000000e+00 0.000000e+00 0.000000e+00 9.882977e-01 1.170228e-02 0.000000e+00 0.000000e+00 0.000000e+00 0.000000e+00 0.000000e+00
 0.000000e+00 0.000000e+00 0.000000e+00 0.000000e+00 0.000000e+00 0.000000e+00 0.000000e+00 0.000000e+00 0.000000e+00 0.000000e+00 0.000000e+00 0.000000e+00 0.000000e+00 0.000000e+00 0.000000e+00 0.000000e+00 0.000000e+00 0.000000e+00 0.000000e+00 9.881890e-01 1.181094e-02 0.000000e+00 0.000000e+00 0.000000e+00 0.000000e+00
 0.000000e+00 0.000000e+00 0.000000e+00 0.000000e+00 0.000000e+00 0.000000e+00 0.000000e+00 0.000000e+00 0.000000e+00 0.000000e+00 0.000000e+00 0.000000e+00 0.000000e+00 0.000000e+00 0.000000e+00 0.000000e+00 0.000000e+00 0.000000e+00 0.000000e+00 0.000000e+00 9.708486e-01 2.915146e-02 0.000000e+00 0.000000e+00 0.000000e+00
 0.000000e+00 0.000000e+00 0.000000e+00 0.000000e+00 0.000000e+00 0.000000e+00 0.000000e+00 0.000000e+00 0.000000e+00 0.000000e+00 0.000000e+00 0.000000e+00 0.000000e+00 0.000000e+00 0.000000e+00 0.000000e+00 0.000000e+00 0.000000e+00 0.000000e+00 0.000000e+00 0.000000e+00 9.604036e-01 3.959638e-02 0.000000e+00 0.000000e+00
 0.000000e+00 0.000000e+00 0.000000e+00 0.000000e+00 0.000000e+00 0.000000e+00 0.000000e+00 0.000000e+00 0.000000e+00 0.000000e+00 0.000000e+00 0.000000e+00 0.000000e+00 0.000000e+00 0.000000e+00 0.000000e+00 0.000000e+00 0.000000e+00 0.000000e+00 0.000000e+00 0.000000e+00 0.000000e+00 9.914305e-01 8.569464e-03 0.000000e+00
 0.000000e+00 0.000000e+00 0.000000e+00 0.000000e+00 0.000000e+00 0.000000e+00 0.000000e+00 0.000000e+00 0.000000e+00 0.000000e+00 0.000000e+00 0.000000e+00 0.000000e+00 0.000000e+00 0.000000e+00 0.000000e+00 0.000000e+00 0.000000e+00 0.000000e+00 0.000000e+00 0.000000e+00 0.000000e+00 0.000000e+00 9.652470e-01 3.475301e-02
 0.000000e+00 0.000000e+00 0.000000e+00 0.000000e+00 0.000000e+00 0.000000e+00 0.000000e+00 0.000000e+00 0.000000e+00 0.000000e+00 0.000000e+00 0.000000e+00 0.000000e+00 0.000000e+00 0.000000e+00 0.000000e+00 0.000000e+00 0.000000e+00 0.000000e+00 0.000000e+00 0.000000e+00 0.000000e+00 0.000000e+00 0.000000e+00 0.000000e+00
<ENDHMM>
